4 25
G -0.002144909 0.0009457254 0.020413399 0.03603709 -0.037211798 -0.028467236 0.02583549 0.035891954 -0.020061713 -0.015053486 0.029522019 -0.0061338856 -0.018146453 0.026216207 -0.019440642 -0.0072640707 0.011506319 0.003967495 -0.03314086 -0.03779527 0.029247064 0.020281048 0.027030773 0.0030514621 0.025403561
C -0.013621463 -0.0037856055 0.023074294 -0.03008655 -0.015744414 -0.030046329 -0.003720169 0.038152475 -0.029276667 -0.009335075 -0.0077509643 0.03230975 -0.023723584 0.00018064976 -0.019014936 -0.038414203 0.020029172 -0.03503834 -0.017567301 -0.00014039993 -0.0011847258 -0.03064496 0.038458973 0.019928232 0.036932573
A -0.03263167 0.017983193 -0.016548304 0.0032981443 0.03399448 -0.017848706 0.018070001 -0.02714784 -0.014193955 0.03759403 -0.0063106106 0.0012854863 -0.01656252 -0.030730752 -0.006032033 0.009879179 -0.0035521078 0.022134647 -0.010971908 0.009040261 0.021823177 0.033383813 -0.0058149626 -0.03683257 0.01748221
T 0.0022871399 0.029767632 -0.003253131 -0.010553655 -0.035012037 -0.0034262275 0.011306252 0.021605715 0.028210625 -0.022812486 0.007435279 0.024355454 -0.019192204 -0.012429042 0.027190518 0.0065259025 0.00075966836 0.013894549 0.00087110995 0.038475305 0.020242415 -0.03566956 -0.028166242 0.0036058235 0.025570136
